{
  "layers": [
    {
      "neurons": [
        {
          "lastActivation": 0.0,
          "weights": [
            -3.9421967738038846,
            1.3320320781003838
          ],
          "bias": -4.6373969061264395
        },
        {
          "lastActivation": 0.0,
          "weights": [
            0.77858485084892415,
            4.13036836736387
          ],
          "bias": -2.8006647789050443
        }
      ],
      "numberOfNeurons": 2,
      "outputs": null
    },
    {
      "neurons": [
        {
          "lastActivation": -3.5960493621989063,
          "weights": [
            -4.4163637249488561,
            2.2032681729977375
          ],
          "bias": -1.3829538102477874
        },
        {
          "lastActivation": 1.8309243612754638,
          "weights": [
            -3.9537258523146037,
            3.2162696824639676
          ],
          "bias": 2.5683805311261
        },
        {
          "lastActivation": 2.0855604385737889,
          "weights": [
            -0.34521576130220516,
            3.5186216288411245
          ],
          "bias": -1.0878454289651305
        },
        {
          "lastActivation": -1.5406868773768538,
          "weights": [
            -0.10865658635140461,
            -4.5032254452034088
          ],
          "bias": 3.0711951541779596
        },
        {
          "lastActivation": 2.9052509675757978,
          "weights": [
            -2.4738895208103791,
            2.5290374840163081
          ],
          "bias": 2.8501030043698687
        },
        {
          "lastActivation": 1.8404094138215548,
          "weights": [
            4.0542974696941325,
            -1.56795463307122
          ],
          "bias": -0.64593342280135779
        },
        {
          "lastActivation": -7.2350105515808618,
          "weights": [
            -0.47375752617224837,
            -1.9721896723239993
          ],
          "bias": -4.7890633530846145
        },
        {
          "lastActivation": 2.6896026336728891,
          "weights": [
            -0.38132914269630025,
            1.5385776820935984
          ],
          "bias": 1.5323540942755911
        },
        {
          "lastActivation": 9.3272351211009745,
          "weights": [
            1.9762440080746979,
            2.5283389316640936
          ],
          "bias": 4.8226521813621837
        },
        {
          "lastActivation": -2.5709900365519562,
          "weights": [
            -3.2564878973785421,
            1.7873039355098663
          ],
          "bias": -1.1018060746832812
        }
      ],
      "numberOfNeurons": 10,
      "outputs": [
        0.026699465497837881,
        0.8618718077375348,
        0.88949178786257688,
        0.17643544520638663,
        0.9481054014062914,
        0.86299712088018643,
        0.00072038037160884706,
        0.93641032418099579,
        0.99991104003180886,
        0.071028949922255932
      ]
    },
    {
      "neurons": [
        {
          "lastActivation": 4.1640740789533259,
          "weights": [
            3.8673356286094842,
            1.7139626219214834,
            -1.48843103061829,
            2.1530355165257506,
            1.5153688839180612,
            -2.5910219369215737,
            -1.9734526210457946,
            4.0797135030496934,
            2.7745801521483271,
            2.1454702628055937
          ],
          "bias": -2.4185953650815279
        },
        {
          "lastActivation": -2.5656900266646656,
          "weights": [
            4.2665605945253082,
            -2.4841026500466472,
            0.032563069939912696,
            4.7775826958778707,
            -1.2964629770010947,
            -3.9313986160533005,
            -4.0420321059077615,
            2.2631636986972921,
            -2.3062861858792,
            -1.8320045917752594
          ],
          "bias": 3.5313111811550835
        },
        {
          "lastActivation": -10.572849199617684,
          "weights": [
            -3.7522133752112317,
            1.0978349520247466,
            1.6997364763006118,
            0.77108803943341708,
            -4.527978354234425,
            3.4590026277066737,
            -0.572686083653739,
            -3.9555663062690618,
            -4.2813986910833686,
            -1.7357437747369115
          ],
          "bias": -3.6501660205905324
        },
        {
          "lastActivation": -5.6034107405975426,
          "weights": [
            1.3566509434188057,
            1.4833763556036839,
            -0.49501793501596053,
            -1.3204923912394242,
            -0.25116893076152147,
            -4.26903719461692,
            -2.9242705356960927,
            1.1525594395754466,
            -0.38568643585355622,
            -2.441877151036417
          ],
          "bias": -2.840581254304356
        },
        {
          "lastActivation": -6.4815697278706317,
          "weights": [
            0.25243931392552221,
            2.0960132446047623,
            -3.5181357798355068,
            -4.42426001762287,
            -3.34123816955582,
            -1.8058408494852143,
            1.6895376498557266,
            -1.9766176544931024,
            -0.21230805965454566,
            -0.12414046612261771
          ],
          "bias": 2.4122409422427773
        },
        {
          "lastActivation": -3.1018852032181456,
          "weights": [
            2.6375869056793912,
            -0.37178540058831622,
            1.512323159377998,
            -4.4768737543734982,
            -4.972765043221222,
            -3.7252302378057518,
            -0.43131342440619747,
            -0.974664748492908,
            1.1593535423372927,
            1.4905799987603361
          ],
          "bias": 4.1702446463196381
        },
        {
          "lastActivation": 2.8987408930341889,
          "weights": [
            1.8082448538504927,
            2.2237247522705523,
            5.2288185285869506,
            -2.4945239630183158,
            -4.4571597955949711,
            1.047862272470971,
            -4.805964389343913,
            0.0067103592353851124,
            0.58082083495242554,
            3.2800335321817711
          ],
          "bias": -0.77198552260278663
        },
        {
          "lastActivation": 12.739301738855429,
          "weights": [
            -1.1668345769377089,
            -4.156333134844818,
            4.6029533708406207,
            -0.7087336870454074,
            4.8936767998368795,
            1.8004584705194526,
            -3.7658614354844131,
            -0.64408109890498977,
            2.6952734940193359,
            3.474212185696651
          ],
          "bias": 3.8539602655696847
        },
        {
          "lastActivation": -3.5153914077222064,
          "weights": [
            1.7554686140465741,
            3.9763765878048467,
            4.14478764926558,
            1.6927839918241214,
            -0.88632071961642633,
            -5.0196871105631109,
            -4.8443601922240624,
            -3.4434522392920712,
            -4.9189005134106294,
            0.99272296163775287
          ],
          "bias": 2.2734158210395634
        },
        {
          "lastActivation": -4.6918625921377242,
          "weights": [
            -4.28117945312367,
            -4.7559815195324795,
            -0.088615274437733454,
            -3.7487815263705353,
            2.9299516500823741,
            -1.9258755545698885,
            -4.4898552458600447,
            -2.1719900898070041,
            4.87857927605496,
            3.9926258785175506
          ],
          "bias": -3.9787773829667468
        }
      ],
      "numberOfNeurons": 10,
      "outputs": [
        0.98469381995712157,
        0.071379461001347816,
        2.5601111202923149E-05,
        0.0036717413786154589,
        0.0015290632876390369,
        0.043029559101964508,
        0.94778415966150642,
        0.99999706647173214,
        0.028877456982018681,
        0.00908627361930468
      ]
    },
    {
      "neurons": [
        {
          "lastActivation": 4.9358586951671954,
          "weights": [
            4.3203529380377184,
            -6.3613342553813119,
            1.2773915689302513,
            -3.9635217924400612,
            1.2287680570544688,
            -3.1959572234429761,
            5.621019444655488,
            -1.0392482909921488,
            -3.2006761352356103,
            3.7019780513538381
          ],
          "bias": -2.9436131886829471
        }
      ],
      "numberOfNeurons": 1,
      "outputs": [
        0.99286695666403013
      ]
    }
  ],
  "sigmas": [
    [
      -6.4540940863727238E-06,
      -2.3090130674262766E-05
    ],
    [
      2.2461746108059584E-06,
      -7.7804600520250144E-06,
      -3.8264400514908463E-06,
      1.6481413011030104E-05,
      -5.8238996969708838E-07,
      -1.6221855956208387E-05,
      -2.2781878449924422E-08,
      1.0299425529981558E-06,
      -7.9601731805463668E-09,
      -5.6922512628065923E-06
    ],
    [
      -3.2897199519238195E-06,
      2.13027814060568E-05,
      -1.6521247175874628E-09,
      7.3253100556665509E-07,
      -9.4776480658632155E-08,
      6.6487316470949258E-06,
      -1.4054078731895396E-05,
      1.5402119196088228E-10,
      4.5346803844278829E-06,
      -1.6839350159455312E-06
    ],
    [
      -5.0520928677594417E-05
    ]
  ],
  "deltas": [
    [
      [
        0.0,
        0.0
      ],
      [
        0.0,
        0.0
      ]
    ],
    [
      [
        -5.8492664319421784E-06,
        -5.8492664319421784E-06
      ],
      [
        6.3824954463293968E-07,
        6.3824954463293968E-07
      ],
      [
        1.6239331326456752E-06,
        1.6239331326456752E-06
      ],
      [
        3.4461676207312071E-06,
        3.4461676207312071E-06
      ],
      [
        -2.7388873808768012E-06,
        -2.7388873808768012E-06
      ],
      [
        1.69607328145729E-07,
        1.69607328145729E-07
      ],
      [
        6.3989741368824489E-08,
        6.3989741368824489E-08
      ],
      [
        -1.1107897155212396E-06,
        -1.1107897155212396E-06
      ],
      [
        1.4504491567678014E-07,
        1.4504491567678014E-07
      ],
      [
        9.84208329405693E-07,
        9.84208329405693E-07
      ]
    ],
    [
      [
        -7.8847847917739333E-08,
        -2.3751576016811826E-06,
        -2.4864347046602394E-06,
        1.5815275862376691E-06,
        -1.7676443612416046E-06,
        -6.41296194620666E-07,
        9.36344133699897E-09,
        -1.3515563093577523E-06,
        -1.0169559267435223E-06,
        -2.02679119319107E-07
      ],
      [
        -6.02602529350873E-06,
        4.9635757637628519E-06,
        7.5726123338166218E-06,
        -1.3142444371859876E-05,
        1.2244723775629626E-06,
        3.1848110144098012E-06,
        -8.2796579745513618E-08,
        -8.0872411126910776E-07,
        -3.53697261068219E-06,
        -5.0443742057649138E-06
      ],
      [
        -2.6796001045008993E-11,
        -5.14563575943898E-10,
        -6.0494820160119E-10,
        3.9683368013893766E-09,
        1.0964880910483424E-09,
        2.9003375614037183E-09,
        2.195006984383035E-11,
        1.8579850084019801E-09,
        2.8234784887871778E-09,
        -5.6327968796361004E-11
      ],
      [
        -2.0825899178389505E-06,
        -2.6286011075588016E-06,
        -2.1360156765956938E-06,
        -8.278075283468362E-07,
        -2.586835150369221E-06,
        1.7091648186711635E-07,
        -6.0957303716968214E-09,
        -2.4432633682907738E-06,
        -2.5978594115063389E-06,
        -1.9825077802382097E-06
      ],
      [
        6.5843626842578E-08,
        3.0462329741298447E-08,
        9.76401323035973E-09,
        3.53452286710746E-08,
        3.02397934465236E-08,
        -4.7839867140114236E-08,
        2.7265063748937479E-10,
        2.9013150451892578E-08,
        3.4529563024877326E-08,
        5.98480632232538E-08
      ],
      [
        -2.67093281907947E-06,
        1.4754385179481273E-06,
        2.1016781017119746E-06,
        -6.5928702504100871E-09,
        1.9604033315898791E-06,
        5.0496442798210275E-06,
        -2.6275532563640839E-09,
        2.0275304767053714E-06,
        2.1856340041163721E-06,
        -2.2687799432826671E-06
      ],
      [
        7.8581628215128881E-07,
        -5.6308369139519523E-06,
        -9.2305376178586631E-06,
        1.1029497170087628E-05,
        -3.0283498364027551E-06,
        -1.3021345835703119E-06,
        7.7277191980081709E-08,
        -1.8551754958252695E-06,
        3.2344577840771082E-07,
        4.7055293876188068E-07
      ],
      [
        -3.5393476804114422E-10,
        -1.6387880411889663E-09,
        -5.4859354203352874E-10,
        -2.67166160063667E-09,
        -2.136657276771985E-09,
        -1.6125365551050341E-09,
        -1.9391156862150528E-11,
        -2.1473715945025517E-09,
        -2.7041309683947388E-09,
        -4.3488563268679162E-10
      ],
      [
        -2.4655067762635352E-06,
        -2.623043933346966E-06,
        6.5801584570664409E-07,
        -3.9113874026016231E-06,
        -2.3219460912802715E-06,
        2.1123268466225047E-06,
        -3.5997091707946955E-08,
        -1.7477030738942142E-06,
        -2.3232813893121549E-06,
        -2.4068521684775359E-06
      ],
      [
        3.8279901802757627E-07,
        -7.2280816720241437E-07,
        -8.4143280174024812E-07,
        3.0627564502184164E-07,
        -6.798381224929512E-07,
        -9.1804082299991117E-07,
        2.222246164732726E-09,
        -6.0802452549408836E-07,
        -5.6832718912218024E-07,
        2.9657211478912713E-07
      ]
    ],
    [
      [
        -1.3882568799738091E-06,
        4.095988752242289E-05,
        2.2146139208272618E-09,
        7.0616026132351244E-07,
        2.8644743410305854E-08,
        9.1496124490242973E-06,
        -3.2569703356335271E-05,
        -1.6277085424097246E-06,
        1.2185592638645704E-05,
        -1.5464691742954074E-07
      ]
    ]
  ]
}